digraph Tree {
node [shape=box] ;
0 [label="X[14] <= 0.605\ngini = 0.499\nsamples = 80\nvalue = [69, 63]"] ;
1 [label="X[15] <= 2.632\ngini = 0.33\nsamples = 43\nvalue = [57, 15]"] ;
0 -> 1 [labeldistance=2.5, labelangle=45, headlabel="True"] ;
2 [label="X[15] <= 2.115\ngini = 0.425\nsamples = 30\nvalue = [34, 15]"] ;
1 -> 2 ;
3 [label="X[8] <= 1.527\ngini = 0.147\nsamples = 16\nvalue = [23, 2]"] ;
2 -> 3 ;
4 [label="gini = 0.0\nsamples = 1\nvalue = [0, 1]"] ;
3 -> 4 ;
5 [label="X[16] <= 1.038\ngini = 0.08\nsamples = 15\nvalue = [23, 1]"] ;
3 -> 5 ;
6 [label="gini = 0.0\nsamples = 12\nvalue = [19, 0]"] ;
5 -> 6 ;
7 [label="X[12] <= 0.374\ngini = 0.32\nsamples = 3\nvalue = [4, 1]"] ;
5 -> 7 ;
8 [label="gini = 0.0\nsamples = 2\nvalue = [4, 0]"] ;
7 -> 8 ;
9 [label="gini = 0.0\nsamples = 1\nvalue = [0, 1]"] ;
7 -> 9 ;
10 [label="X[9] <= 13.119\ngini = 0.497\nsamples = 14\nvalue = [11, 13]"] ;
2 -> 10 ;
11 [label="X[2] <= 0.499\ngini = 0.346\nsamples = 5\nvalue = [7, 2]"] ;
10 -> 11 ;
12 [label="gini = 0.0\nsamples = 4\nvalue = [7, 0]"] ;
11 -> 12 ;
13 [label="gini = 0.0\nsamples = 1\nvalue = [0, 2]"] ;
11 -> 13 ;
14 [label="X[0] <= 0.897\ngini = 0.391\nsamples = 9\nvalue = [4, 11]"] ;
10 -> 14 ;
15 [label="gini = 0.0\nsamples = 2\nvalue = [2, 0]"] ;
14 -> 15 ;
16 [label="X[7] <= -0.011\ngini = 0.26\nsamples = 7\nvalue = [2, 11]"] ;
14 -> 16 ;
17 [label="X[14] <= 0.436\ngini = 0.153\nsamples = 6\nvalue = [1, 11]"] ;
16 -> 17 ;
18 [label="X[2] <= 0.349\ngini = 0.32\nsamples = 2\nvalue = [1, 4]"] ;
17 -> 18 ;
19 [label="gini = 0.0\nsamples = 1\nvalue = [1, 0]"] ;
18 -> 19 ;
20 [label="gini = 0.0\nsamples = 1\nvalue = [0, 4]"] ;
18 -> 20 ;
21 [label="gini = 0.0\nsamples = 4\nvalue = [0, 7]"] ;
17 -> 21 ;
22 [label="gini = 0.0\nsamples = 1\nvalue = [1, 0]"] ;
16 -> 22 ;
23 [label="gini = 0.0\nsamples = 13\nvalue = [23, 0]"] ;
1 -> 23 ;
24 [label="X[0] <= 0.94\ngini = 0.32\nsamples = 37\nvalue = [12, 48]"] ;
0 -> 24 [labeldistance=2.5, labelangle=-45, headlabel="False"] ;
25 [label="gini = 0.0\nsamples = 16\nvalue = [0, 26]"] ;
24 -> 25 ;
26 [label="X[11] <= 0.224\ngini = 0.457\nsamples = 21\nvalue = [12, 22]"] ;
24 -> 26 ;
27 [label="X[9] <= -8.384\ngini = 0.337\nsamples = 17\nvalue = [6, 22]"] ;
26 -> 27 ;
28 [label="gini = 0.0\nsamples = 2\nvalue = [3, 0]"] ;
27 -> 28 ;
29 [label="X[5] <= 5.082\ngini = 0.211\nsamples = 15\nvalue = [3, 22]"] ;
27 -> 29 ;
30 [label="X[4] <= 13.952\ngini = 0.083\nsamples = 13\nvalue = [1, 22]"] ;
29 -> 30 ;
31 [label="gini = 0.0\nsamples = 8\nvalue = [0, 17]"] ;
30 -> 31 ;
32 [label="X[3] <= 15.527\ngini = 0.278\nsamples = 5\nvalue = [1, 5]"] ;
30 -> 32 ;
33 [label="gini = 0.0\nsamples = 1\nvalue = [1, 0]"] ;
32 -> 33 ;
34 [label="gini = 0.0\nsamples = 4\nvalue = [0, 5]"] ;
32 -> 34 ;
35 [label="gini = 0.0\nsamples = 2\nvalue = [2, 0]"] ;
29 -> 35 ;
36 [label="gini = 0.0\nsamples = 4\nvalue = [6, 0]"] ;
26 -> 36 ;
}