digraph Tree {
node [shape=box] ;
0 [label="X[14] <= 0.586\ngini = 0.478\nsamples = 109\nvalue = [66, 43]"] ;
1 [label="X[4] <= 15.893\ngini = 0.271\nsamples = 62\nvalue = [52, 10]"] ;
0 -> 1 [labeldistance=2.5, labelangle=45, headlabel="True"] ;
2 [label="X[10] <= 0.17\ngini = 0.231\nsamples = 60\nvalue = [52, 8]"] ;
1 -> 2 ;
3 [label="X[4] <= 12.796\ngini = 0.145\nsamples = 51\nvalue = [47, 4]"] ;
2 -> 3 ;
4 [label="gini = 0.0\nsamples = 1\nvalue = [0, 1]"] ;
3 -> 4 ;
5 [label="X[4] <= 15.153\ngini = 0.113\nsamples = 50\nvalue = [47, 3]"] ;
3 -> 5 ;
6 [label="gini = 0.0\nsamples = 36\nvalue = [36, 0]"] ;
5 -> 6 ;
7 [label="X[7] <= -0.061\ngini = 0.337\nsamples = 14\nvalue = [11, 3]"] ;
5 -> 7 ;
8 [label="X[13] <= 1.817\ngini = 0.375\nsamples = 4\nvalue = [1, 3]"] ;
7 -> 8 ;
9 [label="gini = 0.0\nsamples = 1\nvalue = [1, 0]"] ;
8 -> 9 ;
10 [label="gini = 0.0\nsamples = 3\nvalue = [0, 3]"] ;
8 -> 10 ;
11 [label="gini = 0.0\nsamples = 10\nvalue = [10, 0]"] ;
7 -> 11 ;
12 [label="X[10] <= 0.235\ngini = 0.494\nsamples = 9\nvalue = [5, 4]"] ;
2 -> 12 ;
13 [label="gini = 0.0\nsamples = 3\nvalue = [0, 3]"] ;
12 -> 13 ;
14 [label="X[4] <= 12.906\ngini = 0.278\nsamples = 6\nvalue = [5, 1]"] ;
12 -> 14 ;
15 [label="X[16] <= 1.572\ngini = 0.5\nsamples = 2\nvalue = [1, 1]"] ;
14 -> 15 ;
16 [label="gini = 0.0\nsamples = 1\nvalue = [1, 0]"] ;
15 -> 16 ;
17 [label="gini = 0.0\nsamples = 1\nvalue = [0, 1]"] ;
15 -> 17 ;
18 [label="gini = 0.0\nsamples = 4\nvalue = [4, 0]"] ;
14 -> 18 ;
19 [label="gini = 0.0\nsamples = 2\nvalue = [0, 2]"] ;
1 -> 19 ;
20 [label="X[4] <= 13.276\ngini = 0.418\nsamples = 47\nvalue = [14, 33]"] ;
0 -> 20 [labeldistance=2.5, labelangle=-45, headlabel="False"] ;
21 [label="gini = 0.0\nsamples = 15\nvalue = [0, 15]"] ;
20 -> 21 ;
22 [label="X[4] <= 14.494\ngini = 0.492\nsamples = 32\nvalue = [14, 18]"] ;
20 -> 22 ;
23 [label="X[10] <= 0.084\ngini = 0.457\nsamples = 17\nvalue = [11, 6]"] ;
22 -> 23 ;
24 [label="X[5] <= -14.96\ngini = 0.153\nsamples = 12\nvalue = [11, 1]"] ;
23 -> 24 ;
25 [label="gini = 0.0\nsamples = 1\nvalue = [0, 1]"] ;
24 -> 25 ;
26 [label="gini = 0.0\nsamples = 11\nvalue = [11, 0]"] ;
24 -> 26 ;
27 [label="gini = 0.0\nsamples = 5\nvalue = [0, 5]"] ;
23 -> 27 ;
28 [label="X[6] <= -0.663\ngini = 0.32\nsamples = 15\nvalue = [3, 12]"] ;
22 -> 28 ;
29 [label="gini = 0.0\nsamples = 2\nvalue = [2, 0]"] ;
28 -> 29 ;
30 [label="X[10] <= 0.074\ngini = 0.142\nsamples = 13\nvalue = [1, 12]"] ;
28 -> 30 ;
31 [label="gini = 0.0\nsamples = 12\nvalue = [0, 12]"] ;
30 -> 31 ;
32 [label="gini = 0.0\nsamples = 1\nvalue = [1, 0]"] ;
30 -> 32 ;
}