digraph Tree {
node [shape=box] ;
0 [label="X[12] <= 0.064\ngini = 0.498\nsamples = 88\nvalue = [70, 62]"] ;
1 [label="X[5] <= -1.878\ngini = 0.292\nsamples = 30\nvalue = [8, 37]"] ;
0 -> 1 [labeldistance=2.5, labelangle=45, headlabel="True"] ;
2 [label="gini = 0.0\nsamples = 2\nvalue = [4, 0]"] ;
1 -> 2 ;
3 [label="X[4] <= 13.891\ngini = 0.176\nsamples = 28\nvalue = [4, 37]"] ;
1 -> 3 ;
4 [label="gini = 0.0\nsamples = 18\nvalue = [0, 29]"] ;
3 -> 4 ;
5 [label="X[14] <= 0.629\ngini = 0.444\nsamples = 10\nvalue = [4, 8]"] ;
3 -> 5 ;
6 [label="X[10] <= 0.02\ngini = 0.444\nsamples = 5\nvalue = [4, 2]"] ;
5 -> 6 ;
7 [label="gini = 0.0\nsamples = 2\nvalue = [0, 2]"] ;
6 -> 7 ;
8 [label="gini = 0.0\nsamples = 3\nvalue = [4, 0]"] ;
6 -> 8 ;
9 [label="gini = 0.0\nsamples = 5\nvalue = [0, 6]"] ;
5 -> 9 ;
10 [label="X[8] <= 1.096\ngini = 0.41\nsamples = 58\nvalue = [62, 25]"] ;
0 -> 10 [labeldistance=2.5, labelangle=-45, headlabel="False"] ;
11 [label="X[12] <= 0.95\ngini = 0.32\nsamples = 6\nvalue = [2, 8]"] ;
10 -> 11 ;
12 [label="gini = 0.0\nsamples = 4\nvalue = [0, 8]"] ;
11 -> 12 ;
13 [label="gini = 0.0\nsamples = 2\nvalue = [2, 0]"] ;
11 -> 13 ;
14 [label="X[4] <= 15.404\ngini = 0.344\nsamples = 52\nvalue = [60, 17]"] ;
10 -> 14 ;
15 [label="X[14] <= 0.588\ngini = 0.271\nsamples = 47\nvalue = [57, 11]"] ;
14 -> 15 ;
16 [label="X[0] <= 2.203\ngini = 0.087\nsamples = 31\nvalue = [42, 2]"] ;
15 -> 16 ;
17 [label="gini = 0.0\nsamples = 25\nvalue = [37, 0]"] ;
16 -> 17 ;
18 [label="X[0] <= 2.355\ngini = 0.408\nsamples = 6\nvalue = [5, 2]"] ;
16 -> 18 ;
19 [label="gini = 0.0\nsamples = 1\nvalue = [0, 1]"] ;
18 -> 19 ;
20 [label="X[1] <= 4.265\ngini = 0.278\nsamples = 5\nvalue = [5, 1]"] ;
18 -> 20 ;
21 [label="gini = 0.0\nsamples = 1\nvalue = [0, 1]"] ;
20 -> 21 ;
22 [label="gini = 0.0\nsamples = 4\nvalue = [5, 0]"] ;
20 -> 22 ;
23 [label="X[7] <= -0.109\ngini = 0.469\nsamples = 16\nvalue = [15, 9]"] ;
15 -> 23 ;
24 [label="X[7] <= -0.611\ngini = 0.198\nsamples = 5\nvalue = [8, 1]"] ;
23 -> 24 ;
25 [label="gini = 0.0\nsamples = 1\nvalue = [0, 1]"] ;
24 -> 25 ;
26 [label="gini = 0.0\nsamples = 4\nvalue = [8, 0]"] ;
24 -> 26 ;
27 [label="X[8] <= 2.122\ngini = 0.498\nsamples = 11\nvalue = [7, 8]"] ;
23 -> 27 ;
28 [label="X[3] <= 14.449\ngini = 0.42\nsamples = 8\nvalue = [7, 3]"] ;
27 -> 28 ;
29 [label="X[10] <= 0.104\ngini = 0.219\nsamples = 6\nvalue = [7, 1]"] ;
28 -> 29 ;
30 [label="gini = 0.0\nsamples = 5\nvalue = [7, 0]"] ;
29 -> 30 ;
31 [label="gini = 0.0\nsamples = 1\nvalue = [0, 1]"] ;
29 -> 31 ;
32 [label="gini = 0.0\nsamples = 2\nvalue = [0, 2]"] ;
28 -> 32 ;
33 [label="gini = 0.0\nsamples = 3\nvalue = [0, 5]"] ;
27 -> 33 ;
34 [label="X[16] <= 1.603\ngini = 0.444\nsamples = 5\nvalue = [3, 6]"] ;
14 -> 34 ;
35 [label="gini = 0.0\nsamples = 3\nvalue = [0, 6]"] ;
34 -> 35 ;
36 [label="gini = 0.0\nsamples = 2\nvalue = [3, 0]"] ;
34 -> 36 ;
}