digraph Tree {
node [shape=box] ;
0 [label="X[8] <= 1.15\ngini = 0.5\nsamples = 75\nvalue = [65, 67]"] ;
1 [label="X[13] <= 3.263\ngini = 0.074\nsamples = 15\nvalue = [1, 25]"] ;
0 -> 1 [labeldistance=2.5, labelangle=45, headlabel="True"] ;
2 [label="gini = 0.0\nsamples = 14\nvalue = [0, 25]"] ;
1 -> 2 ;
3 [label="gini = 0.0\nsamples = 1\nvalue = [1, 0]"] ;
1 -> 3 ;
4 [label="X[14] <= 0.586\ngini = 0.478\nsamples = 60\nvalue = [64, 42]"] ;
0 -> 4 [labeldistance=2.5, labelangle=-45, headlabel="False"] ;
5 [label="X[5] <= 3.301\ngini = 0.215\nsamples = 33\nvalue = [50, 7]"] ;
4 -> 5 ;
6 [label="gini = 0.0\nsamples = 23\nvalue = [38, 0]"] ;
5 -> 6 ;
7 [label="X[4] <= 13.792\ngini = 0.465\nsamples = 10\nvalue = [12, 7]"] ;
5 -> 7 ;
8 [label="gini = 0.0\nsamples = 2\nvalue = [0, 4]"] ;
7 -> 8 ;
9 [label="X[7] <= -0.061\ngini = 0.32\nsamples = 8\nvalue = [12, 3]"] ;
7 -> 9 ;
10 [label="gini = 0.0\nsamples = 2\nvalue = [0, 3]"] ;
9 -> 10 ;
11 [label="gini = 0.0\nsamples = 6\nvalue = [12, 0]"] ;
9 -> 11 ;
12 [label="X[0] <= 1.095\ngini = 0.408\nsamples = 27\nvalue = [14, 35]"] ;
4 -> 12 ;
13 [label="X[3] <= 14.449\ngini = 0.473\nsamples = 7\nvalue = [8, 5]"] ;
12 -> 13 ;
14 [label="gini = 0.0\nsamples = 3\nvalue = [8, 0]"] ;
13 -> 14 ;
15 [label="gini = 0.0\nsamples = 4\nvalue = [0, 5]"] ;
13 -> 15 ;
16 [label="X[7] <= -0.107\ngini = 0.278\nsamples = 20\nvalue = [6, 30]"] ;
12 -> 16 ;
17 [label="X[6] <= -0.652\ngini = 0.5\nsamples = 5\nvalue = [5, 5]"] ;
16 -> 17 ;
18 [label="X[5] <= -9.902\ngini = 0.408\nsamples = 3\nvalue = [2, 5]"] ;
17 -> 18 ;
19 [label="gini = 0.0\nsamples = 1\nvalue = [2, 0]"] ;
18 -> 19 ;
20 [label="gini = 0.0\nsamples = 2\nvalue = [0, 5]"] ;
18 -> 20 ;
21 [label="gini = 0.0\nsamples = 2\nvalue = [3, 0]"] ;
17 -> 21 ;
22 [label="X[10] <= -0.042\ngini = 0.074\nsamples = 15\nvalue = [1, 25]"] ;
16 -> 22 ;
23 [label="X[4] <= 13.814\ngini = 0.444\nsamples = 3\nvalue = [1, 2]"] ;
22 -> 23 ;
24 [label="gini = 0.0\nsamples = 2\nvalue = [0, 2]"] ;
23 -> 24 ;
25 [label="gini = 0.0\nsamples = 1\nvalue = [1, 0]"] ;
23 -> 25 ;
26 [label="gini = 0.0\nsamples = 12\nvalue = [0, 23]"] ;
22 -> 26 ;
}